digraph Tree {
node [shape=box] ;
0 [label="X[0] <= 1800.0017\nmse = 0.0322\nsamples = 10000\nvalue = 0.0333"] ;
1 [label="X[0] <= 1472.9915\nmse = 0.0173\nsamples = 9712\nvalue = 0.0176"] ;
0 -> 1 [labeldistance=2.5, labelangle=45, headlabel="True"] ;
2 [label="X[0] <= 1276.6764\nmse = 0.0071\nsamples = 9004\nvalue = 0.0071"] ;
1 -> 2 ;
3 [label="X[0] <= 1099.0067\nmse = 0.0033\nsamples = 8154\nvalue = 0.0033"] ;
2 -> 3 ;
4 [label="X[0] <= 959.1111\nmse = 0.0014\nsamples = 7085\nvalue = 0.0014"] ;
3 -> 4 ;
5 [label="mse = 0.0005\nsamples = 6061\nvalue = 0.0005"] ;
4 -> 5 ;
6 [label="mse = 0.0068\nsamples = 1024\nvalue = 0.0068"] ;
4 -> 6 ;
7 [label="X[0] <= 1099.1753\nmse = 0.0156\nsamples = 1069\nvalue = 0.0159"] ;
3 -> 7 ;
8 [label="mse = 0.0\nsamples = 1\nvalue = 1.0"] ;
7 -> 8 ;
9 [label="mse = 0.0148\nsamples = 1068\nvalue = 0.015"] ;
7 -> 9 ;
10 [label="X[0] <= 1276.8339\nmse = 0.0416\nsamples = 850\nvalue = 0.0435"] ;
2 -> 10 ;
11 [label="mse = 0.0\nsamples = 1\nvalue = 1.0"] ;
10 -> 11 ;
12 [label="X[1] <= 34696.8359\nmse = 0.0406\nsamples = 849\nvalue = 0.0424"] ;
10 -> 12 ;
13 [label="mse = 0.028\nsamples = 485\nvalue = 0.0289"] ;
12 -> 13 ;
14 [label="mse = 0.0568\nsamples = 364\nvalue = 0.0604"] ;
12 -> 14 ;
15 [label="X[0] <= 1698.5591\nmse = 0.1283\nsamples = 708\nvalue = 0.1511"] ;
1 -> 15 ;
16 [label="X[1] <= 61158.3125\nmse = 0.1112\nsamples = 549\nvalue = 0.1275"] ;
15 -> 16 ;
17 [label="X[0] <= 1473.3341\nmse = 0.1082\nsamples = 543\nvalue = 0.1234"] ;
16 -> 17 ;
18 [label="mse = 0.0\nsamples = 1\nvalue = 1.0"] ;
17 -> 18 ;
19 [label="mse = 0.1069\nsamples = 542\nvalue = 0.1218"] ;
17 -> 19 ;
20 [label="X[0] <= 1635.5439\nmse = 0.25\nsamples = 6\nvalue = 0.5"] ;
16 -> 20 ;
21 [label="mse = 0.1875\nsamples = 4\nvalue = 0.25"] ;
20 -> 21 ;
22 [label="mse = 0.0\nsamples = 2\nvalue = 1.0"] ;
20 -> 22 ;
23 [label="X[0] <= 1699.0638\nmse = 0.1786\nsamples = 159\nvalue = 0.2327"] ;
15 -> 23 ;
24 [label="mse = 0.0\nsamples = 1\nvalue = 1.0"] ;
23 -> 24 ;
25 [label="X[1] <= 16959.873\nmse = 0.1759\nsamples = 158\nvalue = 0.2278"] ;
23 -> 25 ;
26 [label="mse = 0.2304\nsamples = 25\nvalue = 0.36"] ;
25 -> 26 ;
27 [label="mse = 0.1618\nsamples = 133\nvalue = 0.203"] ;
25 -> 27 ;
28 [label="X[0] <= 1971.915\nmse = 0.2461\nsamples = 288\nvalue = 0.5625"] ;
0 -> 28 [labeldistance=2.5, labelangle=-45, headlabel="False"] ;
29 [label="X[1] <= 27401.2012\nmse = 0.2442\nsamples = 170\nvalue = 0.4235"] ;
28 -> 29 ;
30 [label="X[1] <= 19420.7246\nmse = 0.2153\nsamples = 102\nvalue = 0.3137"] ;
29 -> 30 ;
31 [label="X[0] <= 1950.6971\nmse = 0.2358\nsamples = 63\nvalue = 0.381"] ;
30 -> 31 ;
32 [label="mse = 0.2259\nsamples = 58\nvalue = 0.3448"] ;
31 -> 32 ;
33 [label="mse = 0.16\nsamples = 5\nvalue = 0.8"] ;
31 -> 33 ;
34 [label="X[0] <= 1816.1726\nmse = 0.1631\nsamples = 39\nvalue = 0.2051"] ;
30 -> 34 ;
35 [label="mse = 0.25\nsamples = 8\nvalue = 0.5"] ;
34 -> 35 ;
36 [label="mse = 0.1124\nsamples = 31\nvalue = 0.129"] ;
34 -> 36 ;
37 [label="X[0] <= 1889.562\nmse = 0.2422\nsamples = 68\nvalue = 0.5882"] ;
29 -> 37 ;
38 [label="X[0] <= 1806.1372\nmse = 0.2499\nsamples = 43\nvalue = 0.4884"] ;
37 -> 38 ;
39 [label="mse = 0.0\nsamples = 5\nvalue = 1.0"] ;
38 -> 39 ;
40 [label="mse = 0.2438\nsamples = 38\nvalue = 0.4211"] ;
38 -> 40 ;
41 [label="X[0] <= 1964.9031\nmse = 0.1824\nsamples = 25\nvalue = 0.76"] ;
37 -> 41 ;
42 [label="mse = 0.1488\nsamples = 22\nvalue = 0.8182"] ;
41 -> 42 ;
43 [label="mse = 0.2222\nsamples = 3\nvalue = 0.3333"] ;
41 -> 43 ;
44 [label="X[0] <= 2134.4751\nmse = 0.181\nsamples = 118\nvalue = 0.7627"] ;
28 -> 44 ;
45 [label="X[0] <= 2133.6047\nmse = 0.2089\nsamples = 74\nvalue = 0.7027"] ;
44 -> 45 ;
46 [label="X[0] <= 1990.0027\nmse = 0.2006\nsamples = 72\nvalue = 0.7222"] ;
45 -> 46 ;
47 [label="mse = 0.0\nsamples = 7\nvalue = 1.0"] ;
46 -> 47 ;
48 [label="mse = 0.213\nsamples = 65\nvalue = 0.6923"] ;
46 -> 48 ;
49 [label="mse = 0.0\nsamples = 2\nvalue = 0.0"] ;
45 -> 49 ;
50 [label="X[1] <= 9801.1855\nmse = 0.1178\nsamples = 44\nvalue = 0.8636"] ;
44 -> 50 ;
51 [label="mse = 0.0\nsamples = 1\nvalue = 0.0"] ;
50 -> 51 ;
52 [label="X[0] <= 2300.2554\nmse = 0.1028\nsamples = 43\nvalue = 0.8837"] ;
50 -> 52 ;
53 [label="mse = 0.0686\nsamples = 27\nvalue = 0.9259"] ;
52 -> 53 ;
54 [label="mse = 0.1523\nsamples = 16\nvalue = 0.8125"] ;
52 -> 54 ;
}